digraph Tree {
node [shape=box, style="filled, rounded", color="black", fontname=helvetica] ;
edge [fontname=helvetica] ;
0 [label="tulot <= 56500.0\nentropy = 0.692\nsamples = 673\nvalue = [548, 125]\nclass = y[0]", fillcolor="#eb9e66"] ;
1 [label="tulot <= 34500.0\nentropy = 0.168\nsamples = 521\nvalue = [508, 13]\nclass = y[0]", fillcolor="#e6843e"] ;
0 -> 1 [labeldistance=2.5, labelangle=45, headlabel="True"] ;
2 [label="entropy = 0.0\nsamples = 359\nvalue = [359, 0]\nclass = y[0]", fillcolor="#e58139"] ;
1 -> 2 ;
3 [label="naimisissa <= 0.5\nentropy = 0.403\nsamples = 162\nvalue = [149, 13]\nclass = y[0]", fillcolor="#e78c4a"] ;
1 -> 3 ;
4 [label="entropy = 0.096\nsamples = 81\nvalue = [80, 1]\nclass = y[0]", fillcolor="#e5833b"] ;
3 -> 4 ;
5 [label="entropy = 0.605\nsamples = 81\nvalue = [69, 12]\nclass = y[0]", fillcolor="#ea975b"] ;
3 -> 5 ;
6 [label="tulot <= 65500.0\nentropy = 0.831\nsamples = 152\nvalue = [40, 112]\nclass = y[1]", fillcolor="#80c0ee"] ;
0 -> 6 [labeldistance=2.5, labelangle=-45, headlabel="False"] ;
7 [label="naimisissa <= 0.5\nentropy = 0.992\nsamples = 38\nvalue = [21, 17]\nclass = y[0]", fillcolor="#fae7d9"] ;
6 -> 7 ;
8 [label="entropy = 0.371\nsamples = 14\nvalue = [13, 1]\nclass = y[0]", fillcolor="#e78b48"] ;
7 -> 8 ;
9 [label="entropy = 0.918\nsamples = 24\nvalue = [8, 16]\nclass = y[1]", fillcolor="#9ccef2"] ;
7 -> 9 ;
10 [label="sukupuoli <= 0.5\nentropy = 0.65\nsamples = 114\nvalue = [19, 95]\nclass = y[1]", fillcolor="#61b1ea"] ;
6 -> 10 ;
11 [label="entropy = 0.464\nsamples = 61\nvalue = [6, 55]\nclass = y[1]", fillcolor="#4fa8e8"] ;
10 -> 11 ;
12 [label="entropy = 0.804\nsamples = 53\nvalue = [13, 40]\nclass = y[1]", fillcolor="#79bded"] ;
10 -> 12 ;
}